digraph Tree {
node [shape=box, style="filled, rounded", color="black", fontname="helvetica"] ;
edge [fontname="helvetica"] ;
0 [label="sepal length (cm) <= 5.55\ngini = 0.66\nsamples = 95\nvalue = [60, 40, 50]\nclass = setosa", fillcolor="#fcf2eb"] ;
1 [label="petal length (cm) <= 2.35\ngini = 0.25\nsamples = 35\nvalue = [55, 8, 1]\nclass = setosa", fillcolor="#e99559"] ;
0 -> 1 [labeldistance=2.5, labelangle=45, headlabel="True"] ;
2 [label="gini = 0.0\nsamples = 29\nvalue = [55, 0, 0]\nclass = setosa", fillcolor="#e58139"] ;
1 -> 2 ;
3 [label="petal width (cm) <= 1.5\ngini = 0.2\nsamples = 6\nvalue = [0, 8, 1]\nclass = versicolor", fillcolor="#52e891"] ;
1 -> 3 ;
4 [label="gini = 0.0\nsamples = 5\nvalue = [0, 8, 0]\nclass = versicolor", fillcolor="#39e581"] ;
3 -> 4 ;
5 [label="gini = 0.0\nsamples = 1\nvalue = [0, 0, 1]\nclass = virginica", fillcolor="#8139e5"] ;
3 -> 5 ;
6 [label="petal length (cm) <= 4.95\ngini = 0.53\nsamples = 60\nvalue = [5, 32, 49]\nclass = virginica", fillcolor="#d7c1f7"] ;
0 -> 6 [labeldistance=2.5, labelangle=-45, headlabel="False"] ;
7 [label="petal length (cm) <= 2.65\ngini = 0.35\nsamples = 27\nvalue = [5, 31, 3]\nclass = versicolor", fillcolor="#68eb9f"] ;
6 -> 7 ;
8 [label="gini = 0.0\nsamples = 3\nvalue = [5, 0, 0]\nclass = setosa", fillcolor="#e58139"] ;
7 -> 8 ;
9 [label="sepal length (cm) <= 6.15\ngini = 0.16\nsamples = 24\nvalue = [0, 31, 3]\nclass = versicolor", fillcolor="#4ce88d"] ;
7 -> 9 ;
10 [label="gini = 0.0\nsamples = 13\nvalue = [0, 20, 0]\nclass = versicolor", fillcolor="#39e581"] ;
9 -> 10 ;
11 [label="sepal width (cm) <= 2.85\ngini = 0.34\nsamples = 11\nvalue = [0, 11, 3]\nclass = versicolor", fillcolor="#6feca3"] ;
9 -> 11 ;
12 [label="sepal width (cm) <= 2.6\ngini = 0.5\nsamples = 5\nvalue = [0, 3, 3]\nclass = versicolor", fillcolor="#ffffff"] ;
11 -> 12 ;
13 [label="gini = 0.0\nsamples = 2\nvalue = [0, 2, 0]\nclass = versicolor", fillcolor="#39e581"] ;
12 -> 13 ;
14 [label="petal width (cm) <= 1.6\ngini = 0.38\nsamples = 3\nvalue = [0, 1, 3]\nclass = virginica", fillcolor="#ab7bee"] ;
12 -> 14 ;
15 [label="gini = 0.0\nsamples = 1\nvalue = [0, 1, 0]\nclass = versicolor", fillcolor="#39e581"] ;
14 -> 15 ;
16 [label="gini = 0.0\nsamples = 2\nvalue = [0, 0, 3]\nclass = virginica", fillcolor="#8139e5"] ;
14 -> 16 ;
17 [label="gini = 0.0\nsamples = 6\nvalue = [0, 8, 0]\nclass = versicolor", fillcolor="#39e581"] ;
11 -> 17 ;
18 [label="sepal width (cm) <= 2.75\ngini = 0.04\nsamples = 33\nvalue = [0, 1, 46]\nclass = virginica", fillcolor="#843de6"] ;
6 -> 18 ;
19 [label="sepal length (cm) <= 5.9\ngini = 0.28\nsamples = 6\nvalue = [0, 1, 5]\nclass = virginica", fillcolor="#9a61ea"] ;
18 -> 19 ;
20 [label="gini = 0.0\nsamples = 3\nvalue = [0, 0, 3]\nclass = virginica", fillcolor="#8139e5"] ;
19 -> 20 ;
21 [label="petal length (cm) <= 5.2\ngini = 0.44\nsamples = 3\nvalue = [0, 1, 2]\nclass = virginica", fillcolor="#c09cf2"] ;
19 -> 21 ;
22 [label="gini = 0.0\nsamples = 1\nvalue = [0, 1, 0]\nclass = versicolor", fillcolor="#39e581"] ;
21 -> 22 ;
23 [label="gini = 0.0\nsamples = 2\nvalue = [0, 0, 2]\nclass = virginica", fillcolor="#8139e5"] ;
21 -> 23 ;
24 [label="gini = 0.0\nsamples = 27\nvalue = [0, 0, 41]\nclass = virginica", fillcolor="#8139e5"] ;
18 -> 24 ;
}